Version 8.5.0
Id 
Min label:-50
Max label:50
bits:18
lda:0
0 ngram:
0 skip:
options: --oaa 3
Checksum: 2657180111
:0
15812664_0:262132:0.68371
15812664_0[1]:262133:-0.304082
15812664_0[2]:262134:-0.611038
15812664_1:53296:-0.571877
15812664_1[1]:53297:0.401294
15812664_1[2]:53298:-0.384599
15812664_2:126948:-0.755468
15812664_2[1]:126949:-0.966781
15812664_2[2]:126950:0.508886
15828703_0:258544:-1.20985
15828703_0[1]:258545:0.442113
15828703_0[2]:258546:0.490956
15828703_1:169516:0.211285
15828703_1[1]:169517:-0.144173
15828703_1[2]:169518:-1.84248
15828703_2:146940:2.20793
15828703_2[1]:146941:-1.71243
15828703_2[2]:146942:-2.13255
15858556_0:197816:4.08209
15858556_0[1]:197817:-3.0855
15858556_0[2]:197818:-2.9152
15858556_1:57692:0.566156
15858556_1[1]:57693:-0.217222
15858556_1[2]:57694:-2.80033
15858556_2:148988:-2.25166
15858556_2[1]:148989:0.697088
15858556_2[2]:148990:1.28979
15877582_0:170964:3.12449
15877582_0[1]:170965:-2.65898
15877582_0[2]:170966:-2.89445
15877582_1:240852:-3.56293
15877582_1[1]:240853:5.02169
15877582_1[2]:240854:-3.53407
15877582_2:152284:-2.00947
15877582_2[1]:152285:-4.13045
15877582_2[2]:152286:3.16094
15897019_0:261964:-1.37813
15897019_0[1]:261965:0.437381
15897019_0[2]:261966:0.514869
15897019_1:224560:0.505223
15897019_1[1]:224561:-0.255609
15897019_1[2]:224562:-1.97225
15897019_2:192028:2.29293
15897019_2[1]:192029:-1.87554
15897019_2[2]:192030:-2.0967
15928947_0:138828:-0.204027
15928947_0[1]:138829:0.206522
15928947_0[2]:138830:-0.195915
15928947_1:242880:0.500856
15928947_1[1]:242881:-0.593447
15928947_1[2]:242882:-0.15131
15928947_2:140220:-0.020807
15928947_2[1]:140221:-0.118927
15928947_2[2]:140222:-0.2126
15941468_0:30344:0.203884
15941468_0[1]:30345:-0.0176204
15941468_0[2]:30346:-0.560752
15941468_1:121944:-0.368845
15941468_1[1]:121945:-0.14036
15941468_1[2]:121946:0.0117989
15941468_2:254288:-0.472883
15941468_2[1]:254289:-0.151993
15941468_2[2]:254290:0.218797
15954382_0:259124:-0.143891
15954382_0[1]:259125:0.0409754
15954382_0[2]:259126:-0.306539
15954382_1:210964:0.148518
15954382_1[1]:210965:-0.342712
15954382_1[2]:210966:-0.0105231
15954382_2:168244:-0.369406
15954382_2[1]:168245:-0.142919
15954382_2[2]:168246:0.105765
15975903_0:160928:2.49555
15975903_0[1]:160929:-2.78796
15975903_0[2]:160930:-0.949151
15975903_1:40028:-1.48451
15975903_1[1]:40029:1.57264
15975903_1[2]:40030:-0.483298
15975903_2:43836:0.189004
15975903_2[1]:43837:-0.587794
15975903_2[2]:43838:0.419209
16003831_0:146612:-0.870488
16003831_0[1]:146613:0.729187
16003831_0[2]:146614:-0.444796
16003831_1:8268:0.952451
16003831_1[1]:8269:-1.03541
16003831_1[2]:8270:0.120049
16003831_2:213688:0.395055
16003831_2[1]:213689:-0.360298
16003831_2[2]:213690:-0.154462
16031366_0:188016:-0.238455
16031366_0[1]:188017:0.108709
16031366_0[2]:188018:-0.13375
16031366_1:247544:0.186901
16031366_1[1]:247545:-0.339296
16031366_1[2]:247546:-0.165907
16031366_2:86672:0.193392
16031366_2[1]:86673:-0.0684354
16031366_2[2]:86674:-0.200701
Constant:202096:-0.0796396
Constant[1]:202097:-0.131205
Constant[2]:202098:-0.201376
